-4050.0
-1834.0
-11817.0
508.0
17953.0
-10363.0
-6036.0
-33846.0
-10972.0
4207.0
58843.0
16201.0
-7967.0
12047.0
11626.0
3457.0
-18817.0
21705.0
36178.0
-3512.0
-3527.0
-5479.0
-23957.0
-12594.0
5393.0
-45116.0
-10585.0
22646.0
-14552.0
14992.0
37782.0
3133.0
49539.0
14639.0
1673.0
-7168.0
1983.0
-7887.0
-9912.0
-43726.0
-237.0
-24289.0
691.0
24139.0
-4884.0
28633.0
-25729.0
-12693.0
306.0
22882.0
5267.0
-4591.0
-19009.0
17006.0
-24778.0
7216.0
26819.0
-50956.0
-27549.0
15226.0
-22468.0
21373.0
39472.0
4982.0
36274.0
8750.0
-6145.0
-2050.0
5416.0
-17347.0
-17428.0
-41526.0
3038.0
-29421.0
4543.0
23333.0
-10227.0
26482.0
-10907.0
-6319.0
6360.0
17688.0
19180.0
-2520.0
-12134.0
12995.0
-21052.0
7058.0
23419.0
-46797.0
-15893.0
13732.0
-24787.0
20131.0
35953.0
1438.0
39835.0
12275.0
531.0
-3466.0
1591.0
-15250.0
-11555.0
-39210.0
2418.0
-27940.0
7664.0
26080.0
-8202.0
27202.0
-15479.0
-9942.0
1056.0
15325.0
15290.0
-3233.0
-19133.0
13966.0
-19346.0
11967.0
25854.0
-49957.0
-16282.0
16151.0
-21299.0
18638.0
36549.0
1785.0
40917.0
10255.0
-2490.0
-4567.0
469.0
-17194.0
-13341.0
-42915.0
4891.0
-31271.0
7545.0
24638.0
-9163.0
28818.0
-13174.0
-12346.0
2340.0
14741.0
16996.0
-3643.0
-20822.0
13362.0
-18638.0
7116.0
22658.0
-51099.0
-15786.0
16903.0
-21540.0
19337.0
36148.0
1426.0
40666.0
9351.0
-6754.0
-4829.0
-4132.0
-18851.0
-14601.0
-36738.0
4561.0
-25901.0
8574.0
26355.0
-6722.0
26336.0
-11283.0
-9357.0
-210.0
16843.0
16303.0
-4130.0
-17446.0
13707.0
-18026.0
11049.0
25574.0
-50354.0
-15728.0
13313.0
-24050.0
18773.0
34368.0
-2769.0
40372.0
17701.0
5153.0
1006.0
-1359.0
-15167.0
-19661.0
-35429.0
12714.0
-34887.0
3454.0
25641.0
-10365.0
31837.0
-18826.0
-13868.0
-580.0
19505.0
15862.0
-11003.0
-26162.0
13923.0
-21059.0
8094.0
20349.0
-54823.0
-23133.0
17585.0
-24922.0
21141.0
37095.0
-454.0
21567.0
-11906.0
-7666.0
4895.0
919.0
-13260.0
-17288.0
-19070.0
-3367.0
-35567.0
14972.0
40617.0
7266.0
8092.0
2843.0
-22775.0
855.0
-6410.0
26463.0
6431.0
30160.0
22547.0
-4541.0
34793.0
9340.0
-23355.0
9783.0
17819.0
-8667.0
11706.0
30064.0
-11945.0
