-25942.0
-4746.0
-10369.0
24689.0
26085.0
-11487.0
17652.0
-2524.0
-4956.0
568.0
71929.0
4175.0
-3252.0
12589.0
20289.0
-16034.0
-23203.0
12946.0
17084.0
-18955.0
3708.0
-2461.0
7650.0
-14909.0
-27768.0
-26669.0
-5099.0
52995.0
-6458.0
11033.0
12081.0
-15201.0
6342.0
16974.0
10957.0
18802.0
9896.0
-24629.0
29812.0
-11630.0
4247.0
-2054.0
58544.0
4744.0
7069.0
23419.0
-3507.0
-29670.0
-21994.0
11081.0
475.0
-10034.0
-4992.0
2615.0
17129.0
-6370.0
-11943.0
-18413.0
-29081.0
53246.0
-16133.0
3148.0
17328.0
-27563.0
4106.0
9452.0
6236.0
16660.0
11347.0
-28681.0
23202.0
-1059.0
2076.0
-4848.0
58515.0
-2271.0
4080.0
23878.0
10988.0
-24224.0
-18505.0
13492.0
8935.0
-9718.0
14.0
1022.0
19232.0
-2925.0
-20520.0
-19026.0
-25338.0
51747.0
-17699.0
6283.0
16324.0
-34291.0
7152.0
10366.0
7654.0
20561.0
10470.0
-28559.0
26798.0
-3578.0
1378.0
-7025.0
60433.0
3770.0
5924.0
24391.0
4759.0
-22369.0
-18542.0
11514.0
6912.0
-5452.0
1751.0
1894.0
21293.0
-4787.0
-17841.0
-19541.0
-28120.0
53987.0
-18516.0
7281.0
17835.0
-33740.0
6709.0
9378.0
4966.0
17578.0
11606.0
-27473.0
23627.0
-3563.0
1374.0
-7835.0
58852.0
2339.0
4249.0
23159.0
8674.0
-25683.0
-18958.0
12253.0
6867.0
-8405.0
4512.0
5066.0
21800.0
-6031.0
-19801.0
-20295.0
-27180.0
52706.0
-17782.0
7310.0
16450.0
-35608.0
6448.0
9610.0
7826.0
17268.0
8688.0
-30956.0
26172.0
-1232.0
-912.0
-6084.0
63708.0
3093.0
8414.0
22651.0
7835.0
-20477.0
-18408.0
9506.0
8206.0
-7042.0
4032.0
2200.0
22194.0
-3091.0
-15604.0
-17756.0
-24280.0
52836.0
-17812.0
7002.0
16963.0
-36120.0
5969.0
15885.0
12712.0
21323.0
7129.0
-28868.0
19980.0
-3108.0
9419.0
-11512.0
55991.0
-590.0
825.0
22156.0
1945.0
-22974.0
-17228.0
12645.0
5531.0
-11388.0
14.0
4304.0
20380.0
-2791.0
-15944.0
-20692.0
-30544.0
57018.0
-16459.0
9193.0
22146.0
-30001.0
71.0
-2043.0
7526.0
19057.0
10787.0
-30802.0
17457.0
620.0
-7743.0
-16470.0
74613.0
17126.0
18164.0
2988.0
20907.0
-17624.0
-13990.0
-10845.0
17699.0
7543.0
36472.0
-387.0
17625.0
30462.0
-5583.0
-8617.0
-363.0
46911.0
-2211.0
4730.0
18623.0
-22236.0
