-13785.0
8814.0
6599.0
8400.0
8122.0
1830.0
-26192.0
56328.0
7398.0
-3679.0
-28821.0
-25754.0
6161.0
-15745.0
-14435.0
12193.0
-25443.0
14768.0
-730.0
16762.0
22117.0
1453.0
-14781.0
6718.0
-46027.0
-2628.0
11462.0
-10253.0
-35521.0
10836.0
8789.0
-14594.0
-972.0
6124.0
13668.0
12324.0
21084.0
10413.0
-10347.0
9294.0
-12434.0
-15418.0
6139.0
-13847.0
12167.0
-20503.0
348.0
-12259.0
-26692.0
32260.0
-2404.0
1017.0
23270.0
20360.0
-21798.0
-19750.0
-43661.0
-1697.0
50.0
-23034.0
-40665.0
-6681.0
7663.0
-2549.0
-2266.0
5947.0
-3145.0
14024.0
16025.0
6651.0
-14741.0
38585.0
5294.0
-20208.0
3331.0
-24208.0
6946.0
-18868.0
-12663.0
-17449.0
-25591.0
3131.0
14462.0
2629.0
18408.0
9026.0
-24676.0
-24394.0
-23342.0
-13811.0
7728.0
-35220.0
-30577.0
-13617.0
18626.0
3828.0
-6394.0
-6280.0
12922.0
20848.0
18248.0
-1306.0
-20534.0
33692.0
6230.0
-17346.0
-3422.0
-17536.0
3074.0
-32691.0
-17515.0
-9188.0
-22290.0
28769.0
11483.0
15395.0
14859.0
4579.0
-22607.0
-14130.0
-26857.0
-647.0
10186.0
-41874.0
-12099.0
-3831.0
21392.0
-1291.0
-8690.0
-4310.0
2005.0
29239.0
19746.0
1689.0
-14795.0
13605.0
-6379.0
-9330.0
6510.0
-9761.0
13102.0
-25573.0
-9202.0
-1111.0
-5560.0
10255.0
-2773.0
12135.0
5645.0
-7910.0
-34109.0
-24543.0
-33002.0
2280.0
5761.0
-35777.0
-37651.0
-14011.0
13982.0
10345.0
-4539.0
-1673.0
27081.0
2732.0
9939.0
-577.0
-5469.0
33399.0
9318.0
-12018.0
-17658.0
-6430.0
2706.0
-29020.0
-15024.0
4230.0
-9121.0
20212.0
-1572.0
18964.0
9939.0
9915.0
-26980.0
-4349.0
-40770.0
-14987.0
-4656.0
-18269.0
-37333.0
3038.0
-11146.0
6409.0
8246.0
-4371.0
-3210.0
-1603.0
7287.0
-8180.0
3134.0
28622.0
-14004.0
-6613.0
-8161.0
-23069.0
15494.0
-15090.0
-7062.0
-20797.0
-2089.0
7631.0
-1342.0
4534.0
3648.0
23117.0
-18518.0
-12581.0
-49746.0
-7524.0
687.0
-14920.0
-47269.0
1699.0
-6520.0
4114.0
-18781.0
-4401.0
30052.0
-10835.0
28523.0
22300.0
-23163.0
34479.0
11323.0
-23311.0
-17600.0
3108.0
13211.0
-14137.0
186.0
-18748.0
-32355.0
23648.0
14014.0
14305.0
2462.0
25516.0
1752.0
-6068.0
-26226.0
-7601.0
10092.0
4845.0
-30765.0
-10616.0
10930.0
-1796.0
