-14088.0
4850.0
15545.0
-2475.0
151.0
9427.0
-15308.0
52867.0
-1934.0
20253.0
-31685.0
-4354.0
5722.0
-6273.0
987.0
603.0
-25640.0
15475.0
11183.0
20512.0
28248.0
-4026.0
-11339.0
1422.0
-27372.0
-14007.0
15067.0
-1247.0
-36152.0
6682.0
1454.0
702.0
-5414.0
16359.0
18410.0
11712.0
2085.0
14640.0
-28916.0
22793.0
-367.0
14950.0
-17108.0
-18500.0
11824.0
-13623.0
8413.0
517.0
-19427.0
-7014.0
19909.0
25691.0
17906.0
1468.0
-18155.0
-16360.0
-28263.0
-3551.0
9563.0
-4437.0
-34133.0
-2734.0
5219.0
7423.0
-13279.0
7683.0
11328.0
10887.0
4308.0
9438.0
-26229.0
26175.0
-3782.0
16195.0
-13172.0
-18173.0
6904.0
-11536.0
14930.0
-25543.0
-29248.0
-9359.0
15674.0
17669.0
17636.0
811.0
-17274.0
-3775.0
-26013.0
-7537.0
15704.0
-6008.0
-35063.0
-2594.0
10197.0
12271.0
-16703.0
8811.0
21392.0
14938.0
-3322.0
10839.0
-27886.0
36043.0
14430.0
7731.0
-18611.0
-20996.0
8090.0
-13467.0
10333.0
-20183.0
-24407.0
-11299.0
18504.0
21686.0
9216.0
-10267.0
-20718.0
-5623.0
-12847.0
223.0
5083.0
-9055.0
-25995.0
217.0
18947.0
18256.0
-10843.0
12618.0
33225.0
16080.0
2057.0
9812.0
-21327.0
32432.0
5864.0
4060.0
-19937.0
-1859.0
4734.0
-13421.0
5931.0
-21417.0
-29288.0
79.0
16173.0
22490.0
13096.0
-2063.0
-20441.0
313.0
-34787.0
-1759.0
15687.0
2555.0
-22498.0
2117.0
1600.0
19562.0
-11398.0
2159.0
16623.0
4885.0
-1075.0
13880.0
-26958.0
34094.0
2336.0
7477.0
-11814.0
-15906.0
12603.0
-11817.0
2954.0
-25601.0
-29072.0
4594.0
15449.0
14723.0
12267.0
-1366.0
-15610.0
-5526.0
-17706.0
-7990.0
5339.0
-446.0
-19117.0
288.0
13391.0
17273.0
930.0
14422.0
17763.0
-4095.0
-2714.0
13137.0
-13989.0
38417.0
-4795.0
20426.0
-7451.0
-14801.0
17606.0
-5626.0
9898.0
-24004.0
-25600.0
1903.0
13600.0
18549.0
13078.0
887.0
-23758.0
-11656.0
-31476.0
911.0
15277.0
-10406.0
-29196.0
-3439.0
-858.0
9339.0
-21330.0
-4347.0
35709.0
12727.0
16316.0
18561.0
-39398.0
38209.0
10795.0
4634.0
-9229.0
3615.0
13158.0
5054.0
3180.0
879.0
-34573.0
3001.0
36544.0
17684.0
12599.0
10680.0
-15798.0
4615.0
-26596.0
-9895.0
17897.0
-13008.0
-28602.0
-1665.0
8001.0
8868.0
