4480.0
30821.0
15024.0
-32193.0
9855.0
-4124.0
-25522.0
25515.0
2400.0
-9399.0
10771.0
-41685.0
560.0
29322.0
23448.0
31601.0
17669.0
-12145.0
32108.0
-8224.0
-5929.0
4912.0
-25722.0
41835.0
5195.0
17826.0
-21614.0
-49395.0
17274.0
33256.0
11793.0
19325.0
-23104.0
-112.0
-41592.0
1999.0
17328.0
-6885.0
-13319.0
46426.0
-1584.0
18309.0
-27754.0
-42916.0
7947.0
3834.0
32514.0
6078.0
26022.0
8864.0
-37478.0
-25410.0
-8922.0
11090.0
1120.0
52795.0
7679.0
-8430.0
5142.0
-23678.0
2879.0
15385.0
41764.0
15107.0
25078.0
-735.0
5394.0
-10125.0
9477.0
1462.0
-22310.0
37392.0
13196.0
-2333.0
-27052.0
-54503.0
8128.0
19486.0
27726.0
31461.0
25969.0
3469.0
-16143.0
-17835.0
-614.0
3303.0
-20594.0
44975.0
10522.0
10065.0
-11001.0
-39722.0
-2762.0
9364.0
34456.0
26051.0
20152.0
-26064.0
740.0
19888.0
10774.0
14508.0
-28121.0
39821.0
10140.0
11806.0
-12248.0
-50008.0
18499.0
8730.0
30432.0
31636.0
-24880.0
-37583.0
9198.0
-10129.0
-4108.0
-13931.0
-4791.0
30021.0
30572.0
6418.0
4891.0
-38100.0
17394.0
22428.0
17980.0
13445.0
-6492.0
-20184.0
-5915.0
-8443.0
20836.0
5163.0
-22610.0
38612.0
12254.0
1937.0
1988.0
-35372.0
12108.0
31478.0
26802.0
12207.0
1174.0
15435.0
-26560.0
-3097.0
25595.0
4596.0
-9060.0
26573.0
-3444.0
17227.0
355.0
-19633.0
16192.0
14593.0
27589.0
1968.0
-20569.0
17428.0
-22126.0
-38093.0
18370.0
9059.0
-2295.0
32265.0
7314.0
13987.0
20145.0
-14017.0
13668.0
9636.0
1891.0
-11473.0
-2724.0
16572.0
-31388.0
-27103.0
17277.0
9890.0
2683.0
46475.0
10352.0
7233.0
-20436.0
-31315.0
-15114.0
26014.0
21385.0
-13400.0
16555.0
33874.0
-31719.0
-12426.0
11747.0
12005.0
-15270.0
43248.0
-807.0
22655.0
-27093.0
-36076.0
-16529.0
-7185.0
22006.0
25203.0
11245.0
-27302.0
-17868.0
-3974.0
15096.0
11647.0
-6265.0
44115.0
7409.0
2944.0
1786.0
-28747.0
23131.0
13060.0
49879.0
15936.0
-8094.0
272.0
17602.0
-8092.0
9394.0
2053.0
-14293.0
31554.0
10923.0
-7585.0
-13179.0
-34414.0
17365.0
35370.0
14176.0
12336.0
10016.0
-30572.0
-33453.0
-15317.0
35298.0
-2274.0
-10623.0
37517.0
1008.0
-22896.0
-4438.0
-43514.0
-1863.0
8466.0
41757.0
21184.0
