-6164.0
-23460.0
22748.0
-47339.0
-30781.0
-18471.0
-15060.0
4663.0
-11538.0
10892.0
16175.0
-33699.0
22516.0
9566.0
32648.0
3875.0
-3217.0
-27519.0
-16235.0
-22557.0
-5618.0
-8673.0
-13069.0
-3476.0
-4352.0
-5030.0
-32463.0
-40494.0
23370.0
-11112.0
-1490.0
2026.0
11360.0
-15143.0
-26501.0
-10941.0
-2163.0
-2121.0
-3445.0
-2425.0
3963.0
5348.0
-31695.0
-11384.0
6620.0
-17183.0
22140.0
9601.0
37886.0
-9878.0
-24329.0
-48935.0
-23631.0
-456.0
-9761.0
-17756.0
-5950.0
18538.0
20369.0
-6710.0
23364.0
-11838.0
10786.0
7387.0
-8741.0
-33770.0
-11920.0
-10634.0
11847.0
-4547.0
-5820.0
-37332.0
-6666.0
12087.0
-936.0
-15612.0
52097.0
-830.0
7116.0
7793.0
-24629.0
-14038.0
-25931.0
-43229.0
-1320.0
-9622.0
-1966.0
-23038.0
-13371.0
-799.0
-3454.0
-13982.0
43797.0
16791.0
-2815.0
-151.0
6345.0
34404.0
-9425.0
-32623.0
-4081.0
361.0
-3240.0
-3666.0
-823.0
30136.0
-9719.0
-5093.0
-7400.0
4339.0
-2522.0
-1106.0
24856.0
8624.0
-65833.0
-41043.0
4415.0
8361.0
-798.0
12024.0
-2657.0
15244.0
3406.0
-9477.0
-1797.0
-30940.0
31312.0
24502.0
29922.0
-17354.0
-18329.0
-16391.0
-6268.0
16374.0
-6219.0
4065.0
2963.0
2655.0
9056.0
-12309.0
11369.0
-12160.0
8060.0
1141.0
-10762.0
-60497.0
3162.0
24847.0
-12932.0
-931.0
-6725.0
-2908.0
1750.0
22728.0
-34432.0
-29508.0
20778.0
-1106.0
21836.0
-23911.0
5943.0
-27872.0
-51907.0
-2479.0
-47266.0
-10850.0
1367.0
-16072.0
-13763.0
22649.0
-41727.0
-7591.0
44620.0
-33817.0
26241.0
-18557.0
-9294.0
-11482.0
-55469.0
-7552.0
-20574.0
-5450.0
-4672.0
-11287.0
9343.0
-15086.0
-10556.0
-42625.0
33610.0
-35726.0
7199.0
8558.0
3847.0
-19069.0
-7888.0
-24462.0
-25962.0
-9214.0
2912.0
-16056.0
8155.0
14159.0
-36582.0
-8744.0
31841.0
-33109.0
11998.0
2083.0
29966.0
-15175.0
-12443.0
-36491.0
-5150.0
-8689.0
-13487.0
3767.0
-9697.0
13168.0
-12539.0
-9618.0
7531.0
-4123.0
26577.0
33713.0
35412.0
5549.0
12197.0
-35174.0
-23795.0
-4208.0
-3735.0
-1655.0
14204.0
16734.0
848.0
-18008.0
10124.0
-15285.0
15210.0
31957.0
-22437.0
-60941.0
-14779.0
4634.0
18631.0
-2424.0
-19971.0
-4599.0
11579.0
-39451.0
-21580.0
-51786.0
42675.0
1058.0
27832.0
20664.0
