-46674.0
-24521.0
29037.0
43408.0
8691.0
44145.0
-10300.0
-10454.0
-16728.0
7268.0
13681.0
25018.0
-8549.0
-10653.0
35103.0
27750.0
14256.0
-19348.0
-13870.0
-3021.0
15872.0
17505.0
15855.0
-6354.0
-35137.0
9133.0
-21374.0
-4717.0
37666.0
-42957.0
26566.0
-33839.0
-36715.0
-34733.0
28496.0
19650.0
-2008.0
18158.0
-2167.0
12870.0
-34270.0
3712.0
-16096.0
17126.0
-6722.0
7562.0
23250.0
30503.0
9766.0
-26436.0
-15011.0
-13272.0
24281.0
-2654.0
30536.0
2387.0
-48326.0
10287.0
-32202.0
-20646.0
30226.0
-48437.0
12491.0
-19281.0
-41440.0
-30112.0
29629.0
26149.0
5072.0
31061.0
-8454.0
-2846.0
-35997.0
5268.0
-10358.0
21019.0
-6219.0
6171.0
27382.0
34936.0
16648.0
-21433.0
-15121.0
-13592.0
24630.0
1506.0
21298.0
4678.0
-45770.0
14695.0
-25289.0
-21041.0
33405.0
-53816.0
13867.0
-18427.0
-42833.0
-33615.0
28649.0
26164.0
3141.0
27281.0
-5302.0
-3253.0
-34062.0
6703.0
-6251.0
19188.0
-8249.0
3691.0
26213.0
36901.0
17346.0
-23278.0
-16045.0
-12570.0
29196.0
131.0
24448.0
2018.0
-46606.0
15152.0
-26090.0
-20371.0
32730.0
-46548.0
15174.0
-14236.0
-40955.0
-33745.0
25280.0
24397.0
3254.0
31561.0
539.0
-3197.0
-35465.0
2027.0
-6809.0
17663.0
-6042.0
6020.0
28232.0
36794.0
16817.0
-23749.0
-23295.0
-9304.0
27734.0
2016.0
23016.0
231.0
-43011.0
15213.0
-26202.0
-19211.0
37370.0
-52831.0
14048.0
-17300.0
-40512.0
-34351.0
26399.0
28372.0
2662.0
35485.0
-2043.0
-4897.0
-33810.0
-1563.0
-5708.0
20707.0
-5934.0
1988.0
28836.0
37645.0
12036.0
-16803.0
-15202.0
-16136.0
27322.0
2558.0
23736.0
8011.0
-41481.0
15963.0
-25665.0
-15680.0
34527.0
-48907.0
15684.0
-19112.0
-41794.0
-32654.0
23634.0
23509.0
2714.0
28947.0
-3149.0
4378.0
-33209.0
3124.0
-9353.0
15795.0
-7368.0
4423.0
27785.0
36011.0
19728.0
-18395.0
-23642.0
-9652.0
29000.0
4929.0
23535.0
-4700.0
-40674.0
8949.0
-30955.0
-18330.0
31354.0
-52015.0
5665.0
-19736.0
-22585.0
-13937.0
23819.0
26832.0
5877.0
38258.0
16666.0
-19381.0
-27391.0
-4335.0
-3388.0
26235.0
-1221.0
2448.0
35451.0
36873.0
19491.0
-23402.0
-17491.0
-3727.0
47107.0
-5288.0
18816.0
19145.0
-23704.0
12091.0
-14725.0
-2800.0
26857.0
-43224.0
25144.0
-14615.0
