-41226.0
-31001.0
36194.0
43637.0
-2558.0
46420.0
17268.0
-17619.0
-11787.0
5490.0
55645.0
35097.0
-8709.0
-15661.0
37541.0
38509.0
9343.0
-19461.0
22388.0
-8144.0
23520.0
4062.0
2696.0
12500.0
-9849.0
7716.0
-20637.0
-10267.0
26934.0
-37021.0
25983.0
-30534.0
-39576.0
-36656.0
35224.0
33388.0
-11292.0
36806.0
33727.0
-15577.0
-16442.0
1367.0
43002.0
24490.0
-11022.0
-6998.0
24543.0
37391.0
7697.0
-28234.0
22970.0
-21934.0
20550.0
-8132.0
569.0
12258.0
-15877.0
-3844.0
-25982.0
-13939.0
30726.0
-25962.0
22592.0
-12996.0
-40910.0
-35423.0
34650.0
39284.0
-9854.0
44877.0
38679.0
-13579.0
-18724.0
-2352.0
42414.0
29389.0
-8011.0
-7368.0
27885.0
36888.0
7666.0
-23506.0
21371.0
-20891.0
18386.0
-5282.0
2814.0
13256.0
-10628.0
-70.0
-25987.0
-14705.0
27971.0
-32549.0
23611.0
-19464.0
-42730.0
-35011.0
35354.0
42402.0
-12330.0
42705.0
34566.0
-12686.0
-19149.0
-5491.0
41165.0
22112.0
-11277.0
-9241.0
28703.0
36626.0
9502.0
-26777.0
24511.0
-17770.0
16926.0
-5307.0
4779.0
13445.0
-17477.0
-585.0
-25026.0
-8402.0
30757.0
-25268.0
22626.0
-18203.0
-43270.0
-38733.0
35971.0
41602.0
-7659.0
46318.0
36714.0
-9505.0
-16607.0
-5057.0
39277.0
28623.0
-9219.0
-7276.0
27076.0
38766.0
9085.0
-24851.0
21253.0
-20091.0
16584.0
-5000.0
1116.0
12664.0
-14805.0
2393.0
-26305.0
-9274.0
24702.0
-33293.0
24325.0
-18265.0
-40898.0
-36977.0
40007.0
41301.0
-12002.0
41288.0
34117.0
-16833.0
-16907.0
1234.0
40640.0
27218.0
-10953.0
-10641.0
32383.0
35043.0
7337.0
-24098.0
24860.0
-17438.0
16431.0
1919.0
1198.0
17727.0
-14923.0
2443.0
-21310.0
-9460.0
30923.0
-29084.0
24003.0
-18301.0
-40071.0
-38987.0
36613.0
40852.0
-7852.0
38828.0
30831.0
-10414.0
-15225.0
3361.0
40515.0
27262.0
-9468.0
-8234.0
28248.0
33588.0
9698.0
-21377.0
21985.0
-18626.0
18250.0
-1085.0
1902.0
10715.0
-15885.0
-382.0
-27983.0
-10898.0
27302.0
-28539.0
18828.0
-18689.0
-22554.0
-18994.0
27799.0
40315.0
-2191.0
45570.0
37889.0
-14078.0
-14044.0
5106.0
23623.0
32065.0
-8160.0
-2965.0
37828.0
39139.0
15002.0
-24925.0
14202.0
-16515.0
26914.0
-1777.0
691.0
18527.0
-4686.0
7565.0
-15354.0
7012.0
24424.0
-27257.0
27411.0
-12938.0
