44099.0
-22210.0
27160.0
-6668.0
-7758.0
5540.0
7015.0
-9847.0
-26092.0
37434.0
22227.0
22772.0
8689.0
20141.0
-5856.0
-20207.0
-17288.0
-775.0
-9592.0
-10967.0
43784.0
-26763.0
-5466.0
13238.0
23626.0
-10264.0
10843.0
-42659.0
16256.0
-13055.0
-5004.0
-4522.0
9340.0
-38474.0
33468.0
-33500.0
3060.0
-3703.0
14772.0
-10885.0
-19717.0
10729.0
7207.0
24739.0
9374.0
7221.0
-21358.0
3901.0
-9055.0
-5835.0
-28366.0
-19141.0
-12662.0
-29782.0
2027.0
13632.0
32315.0
8386.0
-4040.0
-43412.0
9788.0
8629.0
-28955.0
-388.0
18031.0
-34684.0
44241.0
-22114.0
3463.0
-482.0
11350.0
-22389.0
-9582.0
23760.0
4449.0
23534.0
1400.0
9109.0
-10931.0
-7494.0
-16599.0
-11700.0
-34911.0
-16822.0
4674.0
-26373.0
-1337.0
-3041.0
24590.0
6044.0
-1061.0
-21631.0
11811.0
3502.0
-22488.0
-1049.0
16478.0
-34771.0
38112.0
-25660.0
5315.0
-4023.0
9914.0
-21385.0
-13449.0
22569.0
9061.0
25257.0
6588.0
10018.0
-12289.0
-6822.0
-14691.0
-10840.0
-33757.0
-18323.0
-4215.0
-27683.0
-674.0
3709.0
22833.0
5804.0
574.0
-24789.0
8036.0
3459.0
-21942.0
515.0
18517.0
-33748.0
40709.0
-26396.0
7224.0
-1923.0
10348.0
-19766.0
-12684.0
23786.0
9498.0
25178.0
5716.0
9737.0
-13603.0
-8894.0
-14386.0
-10571.0
-34428.0
-17398.0
-3547.0
-27191.0
-2323.0
1824.0
22738.0
5800.0
-1376.0
-23021.0
10446.0
2735.0
-23526.0
1994.0
15721.0
-34256.0
41385.0
-24727.0
4884.0
-6349.0
13181.0
-16498.0
-12556.0
20449.0
3998.0
21012.0
4582.0
12415.0
-11192.0
-7732.0
-14629.0
-12992.0
-34706.0
-15911.0
-10487.0
-28643.0
-5140.0
3812.0
21515.0
2888.0
-864.0
-22948.0
8864.0
3673.0
-21962.0
2631.0
22670.0
-36502.0
29783.0
-29192.0
21885.0
-10605.0
7992.0
-20223.0
-11300.0
16278.0
16267.0
20334.0
7986.0
7888.0
-2848.0
3537.0
-10247.0
-25630.0
-35933.0
-16603.0
-6788.0
-33997.0
7801.0
-6505.0
19895.0
7989.0
1004.0
-38154.0
13521.0
5963.0
-28724.0
5008.0
36829.0
-20564.0
29970.0
-10721.0
33032.0
-3073.0
17664.0
1943.0
-15830.0
38015.0
9557.0
45483.0
17486.0
11860.0
5415.0
-2532.0
-5837.0
-4386.0
-19556.0
-20541.0
-7639.0
-18534.0
31664.0
-14361.0
30794.0
-13864.0
3740.0
4906.0
6436.0
-10209.0
-11695.0
-24372.0
