67628.0
-3424.0
6111.0
-17561.0
-14396.0
-7899.0
-2115.0
20820.0
-29253.0
17605.0
32340.0
7421.0
9853.0
41693.0
-630.0
-25497.0
2604.0
754.0
293.0
-5096.0
26812.0
-25949.0
-1070.0
-9301.0
31442.0
-11995.0
17672.0
-28730.0
-2424.0
-4321.0
-959.0
-9604.0
59297.0
-14573.0
-2120.0
-32188.0
-9656.0
-5420.0
-894.0
31938.0
-27603.0
-3156.0
27617.0
-1462.0
13361.0
45375.0
-144.0
-13234.0
14775.0
-13944.0
-12994.0
-13364.0
-5955.0
-36812.0
3537.0
-17485.0
34669.0
-6724.0
9754.0
-32841.0
-6232.0
-6837.0
-11985.0
-12357.0
61452.0
-4645.0
-2238.0
-25588.0
-11378.0
-8216.0
-4293.0
34280.0
-22341.0
6970.0
17948.0
-990.0
10822.0
48195.0
-657.0
-20563.0
14829.0
-19043.0
-20069.0
-19563.0
-1527.0
-32567.0
-2192.0
-22567.0
35754.0
-6546.0
12985.0
-27853.0
-3646.0
-8453.0
3521.0
-12184.0
60479.0
-6724.0
-945.0
-27796.0
-11168.0
-5823.0
-1591.0
36286.0
-22228.0
4842.0
22542.0
-4332.0
12596.0
48944.0
-1582.0
-20773.0
17486.0
-16856.0
-17134.0
-17770.0
-4524.0
-33743.0
2353.0
-20149.0
34594.0
-4256.0
14086.0
-29067.0
-4775.0
-9677.0
-624.0
-13681.0
60638.0
-5115.0
233.0
-26629.0
-8085.0
-8055.0
-3781.0
36351.0
-22289.0
5927.0
22847.0
-3747.0
12091.0
47535.0
-590.0
-18362.0
15167.0
-17316.0
-17078.0
-17355.0
-4840.0
-33021.0
1785.0
-24715.0
37519.0
-4480.0
13489.0
-27007.0
-6430.0
-10050.0
1401.0
-13070.0
61176.0
-6758.0
153.0
-28313.0
-13472.0
-5926.0
-765.0
34511.0
-20946.0
6054.0
18733.0
-4429.0
9635.0
48384.0
-908.0
-21484.0
19119.0
-17052.0
-17744.0
-15793.0
-8450.0
-35615.0
-2695.0
-21416.0
36325.0
-4176.0
13541.0
-26724.0
-6209.0
-10677.0
-2076.0
-12849.0
62831.0
-7763.0
-3129.0
-27983.0
1965.0
-14261.0
-2241.0
29300.0
-17587.0
2337.0
32167.0
-7939.0
13445.0
45122.0
4140.0
-10048.0
22519.0
-25310.0
-19765.0
-21996.0
-6815.0
-32570.0
3378.0
-28383.0
33772.0
-8287.0
14296.0
-39840.0
-9540.0
-13376.0
-6200.0
-1641.0
55859.0
-9036.0
2885.0
-10282.0
13870.0
-3210.0
9837.0
38550.0
-30451.0
26724.0
25067.0
21999.0
12720.0
33276.0
8614.0
-17858.0
14367.0
-12034.0
-19084.0
-17972.0
5758.0
-27157.0
21222.0
-17651.0
50985.0
-11548.0
15418.0
-2933.0
-5800.0
-21371.0
1430.0
-25632.0
