-5474.0
-2910.0
-16075.0
25798.0
26866.0
-18086.0
6812.0
-7856.0
-9791.0
3185.0
-8821.0
26303.0
17035.0
23295.0
19312.0
-9958.0
27011.0
7000.0
7601.0
21940.0
15044.0
1377.0
1211.0
2847.0
-28860.0
-4628.0
-19226.0
21160.0
9778.0
-22778.0
-14543.0
-2731.0
-5889.0
-8980.0
-30144.0
23751.0
11160.0
-19377.0
13309.0
11726.0
-3702.0
-21405.0
-6295.0
11533.0
33835.0
-3826.0
5554.0
18228.0
36174.0
7705.0
23464.0
18610.0
-13269.0
19533.0
-12416.0
-9171.0
-3145.0
-1797.0
6052.0
2635.0
-3711.0
-12755.0
-19150.0
3820.0
-16319.0
-4414.0
-13129.0
30989.0
19714.0
-15134.0
13900.0
3861.0
-11370.0
-32823.0
427.0
4630.0
27502.0
-13385.0
5766.0
8318.0
24135.0
9983.0
12342.0
9586.0
8232.0
7081.0
-12706.0
39.0
-16328.0
8148.0
-12264.0
-5970.0
436.0
-4086.0
-24811.0
-5240.0
-14972.0
3811.0
-39008.0
33813.0
27675.0
-23624.0
29059.0
-22966.0
10734.0
2981.0
-5382.0
28692.0
7796.0
-444.0
16929.0
14002.0
20938.0
7045.0
12334.0
2880.0
-6382.0
7297.0
-8340.0
8291.0
-12306.0
1736.0
3582.0
11262.0
-1558.0
-14633.0
-14802.0
7759.0
-107.0
-5051.0
-37295.0
26356.0
33714.0
-19420.0
14096.0
-3745.0
1802.0
-23102.0
7923.0
15664.0
6749.0
10108.0
27815.0
11247.0
33693.0
11718.0
11248.0
11565.0
2807.0
17019.0
-6815.0
4532.0
-2251.0
33148.0
2859.0
5528.0
2503.0
-8942.0
-6513.0
1057.0
-7568.0
-8019.0
-43541.0
25420.0
26871.0
-19650.0
10288.0
3969.0
18742.0
-18250.0
-4169.0
14740.0
11603.0
-11692.0
18795.0
26670.0
43579.0
-4374.0
28642.0
26643.0
15088.0
16875.0
-5718.0
-3275.0
-15876.0
8329.0
-13153.0
3585.0
6610.0
3917.0
-14130.0
18743.0
-16012.0
-9363.0
-39687.0
19673.0
24131.0
-24236.0
394.0
3503.0
-3362.0
11167.0
6079.0
10236.0
19492.0
1941.0
34539.0
27468.0
18941.0
12655.0
23475.0
18207.0
1099.0
16917.0
3472.0
9603.0
-34633.0
7301.0
-6577.0
15703.0
-4315.0
-14084.0
-8919.0
-7275.0
994.0
-1909.0
-22068.0
34403.0
27964.0
-14546.0
12725.0
-11651.0
3026.0
-24871.0
-2652.0
23036.0
25055.0
16621.0
12686.0
23455.0
15810.0
17308.0
8350.0
16638.0
379.0
11848.0
-8962.0
10063.0
-17743.0
3768.0
-21677.0
21789.0
-2059.0
-16266.0
-9823.0
3472.0
