6917.0
-10096.0
-33776.0
41711.0
31448.0
-9403.0
8999.0
16314.0
-1366.0
707.0
-1001.0
31306.0
19237.0
5743.0
22383.0
8275.0
32772.0
-7061.0
4470.0
12001.0
22598.0
-5498.0
1837.0
-5370.0
-24191.0
-8557.0
-21943.0
30660.0
24803.0
-15232.0
-28814.0
-1799.0
11880.0
-16671.0
-31609.0
25802.0
20330.0
-8184.0
17104.0
17894.0
-3671.0
-2283.0
-6246.0
24872.0
16240.0
21583.0
27345.0
19013.0
29355.0
-6754.0
16726.0
17914.0
11995.0
1529.0
-20623.0
3619.0
-20683.0
-5588.0
-13326.0
13933.0
11967.0
-8510.0
-11253.0
22512.0
92.0
-11345.0
-22997.0
30423.0
31696.0
-18203.0
9559.0
33072.0
-7215.0
-11541.0
4296.0
26172.0
14002.0
-3815.0
14233.0
22415.0
24545.0
1463.0
16611.0
21721.0
12855.0
-2839.0
-13147.0
3610.0
-19268.0
-6056.0
-12799.0
17216.0
807.0
-9803.0
-20583.0
15585.0
-9556.0
-11878.0
-33486.0
35484.0
22271.0
-28275.0
6904.0
6735.0
-5542.0
19027.0
-8602.0
28197.0
1032.0
5627.0
21511.0
14547.0
50688.0
2682.0
10051.0
10962.0
13694.0
-17692.0
-3001.0
8065.0
-24947.0
-10434.0
-11907.0
26578.0
7393.0
-9882.0
-25980.0
6873.0
-3585.0
-14292.0
-28215.0
35558.0
32233.0
-16794.0
-1626.0
8368.0
-5261.0
-2796.0
494.0
17212.0
5963.0
9308.0
18273.0
7809.0
35437.0
-3341.0
25049.0
24386.0
31229.0
-13365.0
2622.0
5695.0
-26386.0
-13256.0
-15160.0
26018.0
19754.0
-12984.0
-36993.0
8004.0
10602.0
-2482.0
-38529.0
35682.0
21369.0
-4608.0
3737.0
11863.0
3215.0
-2295.0
-1259.0
25870.0
16641.0
14632.0
22245.0
8706.0
33321.0
-1577.0
24472.0
18207.0
17633.0
-16748.0
-16001.0
8945.0
-16468.0
-2481.0
-5027.0
21775.0
4147.0
-12236.0
-29008.0
336.0
12050.0
-15962.0
-43066.0
22507.0
16293.0
-22169.0
-5754.0
26204.0
-9834.0
-17012.0
1801.0
19412.0
17427.0
7013.0
24216.0
560.0
29255.0
-21305.0
7999.0
14429.0
8817.0
-9008.0
-13482.0
-1348.0
-24014.0
-21777.0
-15143.0
21509.0
15675.0
-11660.0
-43847.0
21929.0
4698.0
-14722.0
-15176.0
37931.0
28077.0
-13400.0
10003.0
13929.0
4131.0
-19063.0
-2402.0
26266.0
6968.0
5596.0
31189.0
14246.0
17340.0
9248.0
15100.0
18328.0
2254.0
9865.0
-11482.0
13789.0
-15192.0
3353.0
-27279.0
17163.0
20537.0
-11440.0
-22751.0
12306.0
