13652.0
51835.0
-6597.0
22476.0
-7317.0
27224.0
38265.0
-6052.0
39478.0
27264.0
-1838.0
40525.0
-12282.0
1203.0
10907.0
-2875.0
10801.0
60031.0
-8741.0
25605.0
-16850.0
38377.0
-1416.0
-3854.0
46067.0
29266.0
-3460.0
36138.0
-25875.0
16772.0
14456.0
-274.0
10754.0
65538.0
-10328.0
35065.0
-22193.0
34354.0
7586.0
-3834.0
42977.0
26093.0
2104.0
36929.0
-24987.0
7204.0
13843.0
-6549.0
6657.0
63281.0
-6383.0
34278.0
-22295.0
35231.0
8050.0
-4198.0
44180.0
31868.0
2429.0
38995.0
-25421.0
8351.0
14003.0
-7216.0
8678.0
63500.0
-7497.0
33828.0
-21392.0
34106.0
8542.0
-4440.0
43605.0
30592.0
1579.0
39826.0
-25775.0
7356.0
13051.0
-7318.0
3227.0
62849.0
-7373.0
37578.0
-21481.0
35131.0
7307.0
-2381.0
44947.0
26105.0
2701.0
33680.0
-23686.0
8419.0
16326.0
-4148.0
-649.0
62395.0
-14332.0
32491.0
-28753.0
42387.0
6070.0
-560.0
35662.0
28448.0
2791.0
35912.0
-15676.0
14752.0
17214.0
1782.0
27406.0
65831.0
-1099.0
17504.0
-15402.0
27108.0
16026.0
-9373.0
26972.0
28766.0
-10385.0
32276.0
-14239.0
6467.0
4290.0
-2758.0
