39152.0
27052.0
-1340.0
-3859.0
6683.0
11866.0
47294.0
-10426.0
11897.0
19659.0
-13379.0
47400.0
4927.0
-3774.0
-7320.0
-3122.0
30753.0
17490.0
2328.0
-31980.0
-2376.0
28381.0
1342.0
972.0
1581.0
22716.0
-15565.0
37690.0
-6734.0
12245.0
-19208.0
5108.0
36724.0
26253.0
-52.0
-26966.0
1144.0
28678.0
12541.0
-4327.0
-2925.0
17096.0
-4582.0
33789.0
-3320.0
12479.0
-19591.0
-1163.0
35924.0
26125.0
2028.0
-20877.0
6.0
24126.0
13971.0
-4963.0
-2476.0
21663.0
-8566.0
39411.0
-5822.0
11945.0
-19909.0
-2180.0
36262.0
26398.0
903.0
-21927.0
68.0
25804.0
14119.0
-5600.0
-5150.0
20384.0
-8589.0
38439.0
-7567.0
12785.0
-20026.0
-1350.0
33061.0
24228.0
468.0
-17906.0
-647.0
25271.0
12624.0
-4476.0
-940.0
17972.0
-6144.0
31843.0
-2201.0
11940.0
-16247.0
1058.0
28502.0
26230.0
-1606.0
-20193.0
-13115.0
30973.0
7733.0
2589.0
-16562.0
9358.0
-4493.0
28016.0
2518.0
22392.0
-12818.0
124.0
49098.0
54075.0
3928.0
-21487.0
-8153.0
23600.0
17511.0
-10278.0
-12515.0
22579.0
-20372.0
21714.0
-13942.0
10228.0
-15655.0
2795.0
