15015.0
-5001.0
2093.0
-28138.0
29110.0
-9019.0
2686.0
-5378.0
6180.0
-980.0
2590.0
9119.0
-29056.0
-14521.0
-35978.0
10016.0
-6534.0
-2415.0
-20201.0
-29283.0
-13147.0
-45398.0
984.0
6119.0
-19935.0
-15495.0
9354.0
6864.0
18368.0
10275.0
-13500.0
-46075.0
-2568.0
20691.0
3297.0
-29665.0
-15192.0
-2992.0
-23217.0
3703.0
-13285.0
-2142.0
-31850.0
25406.0
5676.0
-22188.0
-19212.0
2995.0
6349.0
13955.0
22726.0
-31401.0
4708.0
3477.0
-35770.0
-14662.0
25242.0
24227.0
-11878.0
-17751.0
31752.0
11521.0
-18931.0
-9223.0
8109.0
-17036.0
8479.0
-13175.0
2940.0
-3012.0
-8362.0
-11735.0
-11606.0
-31654.0
19610.0
39379.0
-14427.0
-6187.0
-43843.0
8117.0
-21551.0
-12751.0
-4581.0
-31493.0
-10948.0
-26640.0
-5511.0
3920.0
-2777.0
4211.0
16175.0
9287.0
29107.0
11128.0
-39179.0
-20050.0
-6558.0
4533.0
-826.0
-26070.0
-9885.0
-30742.0
260.0
21410.0
-16491.0
1033.0
-12512.0
32289.0
-2985.0
15733.0
-34168.0
10463.0
19081.0
-36833.0
-10773.0
-25565.0
-34656.0
-27283.0
-22842.0
9719.0
6428.0
-5953.0
9931.0
-14890.0
7233.0
19738.0
-14702.0
-11612.0
7011.0
-8505.0
23684.0
-25828.0
24893.0
-40437.0
25179.0
-5873.0
5757.0
-19279.0
1788.0
11018.0
19435.0
-2955.0
-26539.0
5872.0
-18708.0
-28476.0
-12995.0
-21283.0
-717.0
6052.0
2989.0
4743.0
4560.0
-247.0
9396.0
24512.0
38546.0
-1994.0
-28504.0
-42519.0
-6734.0
-23560.0
-22770.0
-20226.0
-21585.0
-7452.0
25349.0
-1362.0
4851.0
-7902.0
-34387.0
-15527.0
6318.0
7276.0
-18324.0
13462.0
-22172.0
-27725.0
-35768.0
-23307.0
-14318.0
-18321.0
-19054.0
-1070.0
-10392.0
2795.0
24461.0
-15842.0
39261.0
19040.0
-21791.0
-43774.0
3174.0
-10306.0
-1761.0
-36699.0
-9931.0
-22546.0
-9174.0
-2622.0
-18645.0
2812.0
15079.0
40276.0
7753.0
7293.0
-3037.0
14118.0
10248.0
3643.0
-13624.0
-13045.0
-4966.0
-34406.0
-25130.0
-22676.0
14478.0
-12319.0
-5003.0
-350.0
12952.0
23529.0
28747.0
-19857.0
12785.0
-7520.0
15170.0
-23755.0
11267.0
-7352.0
12351.0
-478.0
-10.0
-10090.0
-1608.0
31034.0
-16935.0
-11721.0
-20114.0
-8614.0
113.0
-15769.0
-13285.0
-59931.0
-12659.0
-27838.0
-1167.0
-1276.0
6533.0
7791.0
-11198.0
-8807.0
6268.0
2264.0
-18412.0
-47145.0
