22358.0
-28.0
3452.0
-19047.0
1505.0
13873.0
26422.0
16195.0
-13038.0
-19402.0
17082.0
11813.0
-335.0
-9769.0
-21838.0
14629.0
-18047.0
-13118.0
33410.0
-15861.0
13707.0
-10975.0
-10299.0
15632.0
-24064.0
8591.0
22108.0
9582.0
15276.0
22204.0
-18898.0
-6215.0
-3199.0
9146.0
10878.0
-22824.0
14667.0
-10306.0
-7373.0
-2339.0
2058.0
-28972.0
15051.0
30786.0
-5211.0
6916.0
-21438.0
843.0
-27996.0
-26747.0
2518.0
-710.0
6895.0
2336.0
-8969.0
11848.0
-11847.0
4206.0
33662.0
24897.0
32496.0
13293.0
-27842.0
-17669.0
-9203.0
7243.0
9523.0
-27928.0
11050.0
-12331.0
2414.0
2136.0
-11462.0
-30571.0
-2030.0
15636.0
-13875.0
2162.0
1763.0
1329.0
-46535.0
-27232.0
-3204.0
-689.0
4335.0
373.0
-22641.0
-623.0
-25068.0
-9766.0
12038.0
11998.0
19523.0
24598.0
-31456.0
-17057.0
-63.0
19955.0
3948.0
-23597.0
10242.0
-5700.0
-15048.0
7391.0
-4950.0
-59217.0
-3814.0
3154.0
-19537.0
12890.0
-21814.0
8487.0
-9277.0
-12610.0
-7177.0
7335.0
-15890.0
-10457.0
-13752.0
16574.0
-22208.0
16199.0
22809.0
3910.0
6595.0
19569.0
-46093.0
-34394.0
-9107.0
-9602.0
8506.0
-33030.0
14137.0
-16004.0
26301.0
8492.0
-23246.0
-29829.0
10454.0
15067.0
-19389.0
26257.0
-7101.0
20223.0
-41301.0
-20765.0
5377.0
-23887.0
1892.0
15130.0
-16990.0
-713.0
13440.0
-4001.0
-2131.0
-1722.0
9991.0
25731.0
-23320.0
-6362.0
9019.0
3730.0
-2524.0
-19200.0
-7259.0
-8076.0
8448.0
-5566.0
-9619.0
-19271.0
2376.0
23348.0
-17054.0
11129.0
-30289.0
8450.0
-31878.0
-11327.0
8582.0
-8293.0
-37566.0
5537.0
4480.0
6197.0
3784.0
11792.0
-328.0
5975.0
16654.0
10074.0
-27728.0
-11911.0
2146.0
6604.0
-3243.0
-15694.0
23084.0
-52.0
1015.0
-11565.0
5739.0
-42777.0
-28018.0
8479.0
-17306.0
-8679.0
-35547.0
14053.0
-32754.0
-21094.0
23347.0
-10054.0
9122.0
-6902.0
-16034.0
15457.0
-20145.0
11327.0
37068.0
7236.0
6227.0
19018.0
-41260.0
-26332.0
-4449.0
4498.0
21942.0
-40367.0
38321.0
-17331.0
6869.0
8229.0
-20555.0
-16072.0
17591.0
25439.0
-28446.0
-11928.0
-35642.0
-4061.0
-22212.0
-17695.0
568.0
-12892.0
-10231.0
-16891.0
-6247.0
-7543.0
1436.0
-3895.0
7369.0
6748.0
4131.0
19430.0
-22003.0
-16565.0
