45591.0
-2628.0
13181.0
4099.0
-12885.0
-3058.0
-3419.0
18107.0
-6597.0
-26363.0
-18433.0
12735.0
-10748.0
14633.0
-19853.0
36793.0
5548.0
-1240.0
28920.0
14081.0
20457.0
-962.0
-13464.0
-25574.0
-16662.0
-12716.0
-10005.0
-11850.0
8212.0
11737.0
-27637.0
2049.0
25203.0
-8436.0
15421.0
2620.0
-20578.0
7619.0
-33347.0
10752.0
2481.0
-30674.0
13213.0
2001.0
8801.0
149.0
-26268.0
11580.0
11111.0
12850.0
25381.0
-14559.0
20821.0
-6047.0
-18496.0
-12402.0
-20010.0
-23482.0
-7571.0
-10301.0
-3728.0
-21227.0
-12870.0
-37051.0
27570.0
17352.0
-5541.0
2508.0
-10796.0
-3222.0
-22338.0
2387.0
7909.0
-33522.0
11716.0
18652.0
-1821.0
-7220.0
-32415.0
30860.0
12745.0
10413.0
36939.0
18283.0
25517.0
1198.0
-18767.0
-10838.0
-7644.0
-1112.0
-7541.0
-21170.0
-4832.0
-10048.0
-18229.0
-22817.0
16048.0
9953.0
-4665.0
8331.0
-6641.0
-145.0
-42922.0
-6304.0
-4539.0
-21934.0
15867.0
8847.0
3432.0
7552.0
-23976.0
34629.0
9117.0
4588.0
42206.0
23555.0
30943.0
9286.0
-27460.0
-12350.0
-4723.0
6171.0
-10389.0
-201.0
7635.0
-10617.0
-26507.0
-21132.0
11166.0
22760.0
-7740.0
4197.0
-4100.0
11963.0
-32211.0
-14389.0
-6739.0
-28334.0
1171.0
18330.0
660.0
7220.0
-21140.0
39092.0
27973.0
231.0
21978.0
-1355.0
27306.0
-15.0
-38377.0
-11640.0
-464.0
7490.0
-3538.0
-18485.0
18663.0
-11004.0
-28556.0
-19840.0
2848.0
4420.0
-17235.0
-3446.0
-16080.0
17778.0
-44956.0
-2559.0
8689.0
-21210.0
7010.0
8566.0
9126.0
17277.0
-18283.0
23898.0
1060.0
-7186.0
33872.0
12401.0
12529.0
-6634.0
-36079.0
-22564.0
-5788.0
-12535.0
-8193.0
-2800.0
8053.0
-11517.0
-23581.0
-11477.0
4851.0
2416.0
-1780.0
-6395.0
-5388.0
-108.0
-25855.0
21500.0
27040.0
-21336.0
11706.0
2958.0
5049.0
14606.0
-34366.0
23902.0
-6149.0
11522.0
23619.0
-5696.0
18833.0
484.0
-32563.0
-27503.0
-1330.0
7894.0
-14687.0
-17735.0
-3736.0
-23347.0
-18584.0
-30015.0
27365.0
11105.0
-7773.0
-5202.0
-4060.0
-981.0
-11966.0
7425.0
7648.0
-24530.0
-9669.0
10909.0
1737.0
6175.0
-23160.0
32391.0
2294.0
4142.0
38062.0
-8874.0
23115.0
-4103.0
-8156.0
-6627.0
15286.0
15876.0
-1599.0
-18348.0
-6261.0
-1624.0
-1611.0
-8968.0
