17612.0
30357.0
9785.0
3119.0
-13537.0
-5217.0
-41.0
34058.0
-1739.0
-27411.0
-20697.0
21984.0
-1921.0
-810.0
-10679.0
37563.0
-10588.0
-1641.0
20309.0
11971.0
19421.0
15141.0
-7511.0
-16659.0
-941.0
-4046.0
-13858.0
-4418.0
-5083.0
10644.0
-28938.0
7522.0
24015.0
29222.0
25.0
-8509.0
-31677.0
-4953.0
-8858.0
12689.0
2039.0
-42436.0
-16746.0
8741.0
32853.0
643.0
-13625.0
36499.0
-13440.0
2208.0
23958.0
4859.0
22348.0
-914.0
-14961.0
-5546.0
15827.0
-6066.0
-5799.0
-3556.0
-9098.0
8689.0
-16923.0
-26079.0
16644.0
32437.0
-7280.0
-3408.0
-16972.0
4755.0
-13887.0
20046.0
-2700.0
-33823.0
-9868.0
4349.0
20734.0
-9217.0
-21146.0
28386.0
-14855.0
14323.0
26865.0
18092.0
1917.0
-13.0
-8013.0
-12367.0
4649.0
-13101.0
-6090.0
-2075.0
-17522.0
1388.0
-16435.0
-19657.0
25411.0
35098.0
-734.0
-10160.0
-19347.0
3425.0
-14446.0
16083.0
11437.0
-45128.0
-8000.0
6872.0
9637.0
-9816.0
-23192.0
30666.0
-20553.0
3068.0
20562.0
10907.0
13580.0
2193.0
-18197.0
-10821.0
22946.0
-12547.0
-10700.0
11718.0
-12756.0
4601.0
-12909.0
-19754.0
8916.0
30240.0
-5333.0
-6267.0
-26797.0
7144.0
-1811.0
30254.0
-5114.0
-42212.0
-3076.0
10091.0
11668.0
-4250.0
-18396.0
25200.0
-23510.0
12346.0
22904.0
-1406.0
12280.0
-3511.0
-16642.0
-3939.0
6514.0
-15408.0
-3932.0
6375.0
-14516.0
8928.0
-23362.0
-18974.0
29540.0
13582.0
4721.0
-8235.0
-18983.0
6910.0
-4920.0
27807.0
10235.0
-40385.0
2888.0
2722.0
24669.0
-12908.0
-25186.0
24497.0
-22712.0
10858.0
25573.0
18783.0
6463.0
5525.0
-16826.0
-10024.0
9472.0
-1098.0
-4746.0
16736.0
-26114.0
5138.0
-11588.0
-13193.0
15133.0
19325.0
6411.0
-13697.0
-23613.0
2647.0
-9536.0
30700.0
2371.0
-32239.0
7586.0
7587.0
25999.0
-6692.0
-26354.0
26809.0
-28535.0
1752.0
24064.0
10399.0
16424.0
4597.0
-9498.0
-14508.0
2157.0
-216.0
-3702.0
6401.0
-17205.0
3832.0
-12336.0
-22931.0
34863.0
21400.0
7544.0
-1439.0
-16193.0
-5634.0
6546.0
11218.0
719.0
-31273.0
-15275.0
5078.0
15575.0
-5741.0
-26482.0
34942.0
-23630.0
10247.0
43383.0
-2226.0
16709.0
3893.0
12959.0
-6743.0
15173.0
19794.0
2186.0
3421.0
-19453.0
16351.0
-1838.0
-17647.0
