14155.0
2541.0
14496.0
3642.0
21426.0
32816.0
-23111.0
-4580.0
-5392.0
6010.0
-19245.0
13722.0
-16926.0
-5618.0
-15947.0
-11195.0
-17560.0
-17310.0
-2772.0
-13146.0
4811.0
35662.0
-19414.0
-22697.0
1168.0
-15489.0
-6334.0
5671.0
13024.0
-11145.0
14892.0
17573.0
-9222.0
1913.0
8850.0
-23163.0
14187.0
-15679.0
11549.0
-19793.0
-29530.0
-3472.0
-12849.0
11811.0
-11235.0
-22795.0
2948.0
-10412.0
-38663.0
-16172.0
21933.0
2997.0
-18775.0
14379.0
-27434.0
-8032.0
-20447.0
-35329.0
-13775.0
10398.0
7056.0
5783.0
9530.0
-9375.0
-12941.0
-9911.0
22839.0
-27452.0
1877.0
-10538.0
-6195.0
7981.0
-21513.0
-6720.0
-11547.0
16695.0
4539.0
-22156.0
-6651.0
-3023.0
-9973.0
-28682.0
2533.0
-8224.0
233.0
7270.0
-11005.0
-26481.0
-21272.0
-31695.0
3543.0
23393.0
5121.0
-18016.0
12689.0
-695.0
18248.0
2446.0
-15337.0
-7123.0
15833.0
-2054.0
93.0
-10086.0
-18365.0
-16292.0
-13405.0
1672.0
-9592.0
-11604.0
10935.0
-11053.0
-28003.0
-20127.0
199.0
10443.0
3663.0
6155.0
-12403.0
-35050.0
-21637.0
-21225.0
14560.0
8572.0
6379.0
-10582.0
-10455.0
-10176.0
7513.0
20434.0
10218.0
-16490.0
24189.0
25620.0
-2250.0
-729.0
-31546.0
-5528.0
-13876.0
6412.0
-7964.0
-8007.0
-15783.0
3342.0
-15345.0
3571.0
-6879.0
3625.0
5318.0
36630.0
-13882.0
-21969.0
-5154.0
-24618.0
18180.0
5616.0
4611.0
-6589.0
-7435.0
15541.0
-19178.0
20558.0
-13191.0
7603.0
1321.0
13824.0
-29826.0
-9759.0
-5086.0
-3071.0
-24184.0
7683.0
810.0
-27689.0
5655.0
-7886.0
2467.0
-6393.0
7693.0
10256.0
-23753.0
13283.0
-12766.0
-19958.0
-29364.0
-30341.0
-18587.0
-2234.0
-9543.0
-9779.0
-3140.0
4464.0
7713.0
17049.0
-14213.0
7332.0
17907.0
31389.0
-8801.0
-9415.0
-20817.0
8316.0
-24943.0
7636.0
-5239.0
-11748.0
4559.0
-16820.0
-24877.0
-7056.0
6816.0
-13911.0
-15041.0
8523.0
418.0
642.0
-36069.0
-19436.0
-1293.0
2299.0
9435.0
-9435.0
33744.0
-4342.0
-1178.0
4991.0
11201.0
-25389.0
28107.0
-239.0
-3675.0
10728.0
-12619.0
-5802.0
-25431.0
30675.0
-13420.0
-4809.0
12853.0
-9541.0
-3098.0
-6417.0
9475.0
-21445.0
4262.0
22499.0
-3609.0
-6225.0
-27906.0
-12742.0
11280.0
9594.0
12880.0
-15057.0
16737.0
3928.0
