20300.0
-684.0
4125.0
2379.0
26173.0
24765.0
-10476.0
8853.0
-14617.0
4751.0
-11739.0
7444.0
3908.0
-6531.0
-20233.0
8337.0
-7543.0
24690.0
-12159.0
2486.0
24173.0
26207.0
-22890.0
-28723.0
-2947.0
-24022.0
-13020.0
870.0
9064.0
-7630.0
13991.0
19049.0
-1380.0
8497.0
11167.0
-24659.0
27683.0
6675.0
5752.0
-7891.0
-4969.0
-1167.0
-8078.0
9068.0
-1754.0
-6957.0
-9401.0
16516.0
-6557.0
2470.0
5145.0
-3611.0
18369.0
25013.0
-21907.0
-7904.0
-19317.0
-42649.0
7741.0
13221.0
22701.0
-15734.0
13070.0
19120.0
12837.0
-10707.0
3749.0
-7332.0
18355.0
-12423.0
-13187.0
1999.0
-12154.0
1718.0
-21092.0
1704.0
-7384.0
-8927.0
-20070.0
6.0
3436.0
-10627.0
-6033.0
-6843.0
20500.0
-571.0
-19389.0
-31907.0
-22845.0
-34727.0
4917.0
28736.0
16467.0
-22471.0
7832.0
20797.0
10777.0
-5283.0
5228.0
1351.0
39095.0
8731.0
-15856.0
11834.0
-4282.0
11071.0
-14679.0
17709.0
12632.0
-14526.0
-9461.0
6246.0
2988.0
8680.0
8965.0
-4685.0
4442.0
10367.0
606.0
-14108.0
-33446.0
-29152.0
8992.0
21030.0
15348.0
-23114.0
18396.0
23964.0
14963.0
16272.0
8083.0
-5251.0
30270.0
16102.0
9481.0
-2192.0
-10311.0
-2179.0
-15444.0
1211.0
-7638.0
132.0
-15045.0
9894.0
-4149.0
5159.0
-13955.0
-5837.0
18216.0
16183.0
559.0
-4442.0
-21074.0
-26562.0
-1224.0
9726.0
17191.0
-17647.0
13284.0
9269.0
12046.0
1438.0
6537.0
-3903.0
22689.0
-5545.0
-18725.0
-6050.0
-16427.0
11691.0
-14521.0
13698.0
5229.0
-7188.0
-9143.0
9168.0
13147.0
-1346.0
-1049.0
-8020.0
13987.0
18379.0
-29493.0
-19712.0
-955.0
-36364.0
-3822.0
24197.0
29783.0
-25926.0
21785.0
-5400.0
-6351.0
-13688.0
5856.0
-3319.0
29610.0
9246.0
-10275.0
4145.0
-18844.0
7720.0
-8870.0
20176.0
6600.0
-15528.0
339.0
-15846.0
-4561.0
9228.0
-2452.0
-2496.0
4102.0
15154.0
-10747.0
-18903.0
-19360.0
-48501.0
-1986.0
16398.0
20673.0
-22973.0
22373.0
15687.0
2310.0
-6654.0
16871.0
-22664.0
31563.0
7906.0
-2372.0
-5512.0
-24348.0
-9214.0
-15865.0
19712.0
-11450.0
-12634.0
-14472.0
2258.0
6391.0
-510.0
-2378.0
-1950.0
28738.0
7012.0
24523.0
-16155.0
-19705.0
-29899.0
9432.0
22320.0
19962.0
-9480.0
15503.0
-607.0
