2421.0
17693.0
-7200.0
-24269.0
28984.0
-1615.0
27970.0
-13159.0
-23794.0
-18585.0
11576.0
-34591.0
6197.0
-14352.0
20633.0
34633.0
20260.0
-23799.0
27546.0
4328.0
3835.0
-17757.0
-11259.0
-15034.0
-24850.0
35742.0
25321.0
28867.0
19397.0
-15158.0
33350.0
-3884.0
-1362.0
6202.0
-7218.0
-40001.0
14181.0
-21495.0
18173.0
-16337.0
-27236.0
-16701.0
-4235.0
-38497.0
3871.0
-21216.0
14798.0
31415.0
5703.0
-49936.0
13692.0
6822.0
4048.0
-25051.0
-10640.0
-11938.0
-39290.0
29486.0
27838.0
29595.0
16889.0
-17632.0
34331.0
13947.0
-8411.0
11720.0
-9205.0
-36498.0
17838.0
-13661.0
18503.0
-17851.0
-35400.0
-23141.0
-248.0
-41750.0
8473.0
-14435.0
17207.0
38056.0
13624.0
-40760.0
17510.0
11358.0
6597.0
-29195.0
-12633.0
-26390.0
-41357.0
24432.0
21580.0
22732.0
20017.0
-19720.0
26230.0
4518.0
-14397.0
8901.0
-6261.0
-44276.0
11882.0
-19261.0
16938.0
-22154.0
-32504.0
-21930.0
3622.0
-34605.0
11643.0
-10941.0
6568.0
41258.0
-511.0
-52732.0
11843.0
6541.0
2677.0
-38111.0
-3291.0
-22852.0
-40375.0
28597.0
24671.0
28665.0
19270.0
-24831.0
35389.0
4700.0
-9128.0
17349.0
-25971.0
-37786.0
16625.0
-16629.0
13650.0
-28699.0
-35815.0
-20449.0
-1027.0
-37970.0
3717.0
-19336.0
13856.0
32995.0
5739.0
-44429.0
18336.0
3565.0
3425.0
-37196.0
-7947.0
-17474.0
-37191.0
28540.0
20629.0
21662.0
26711.0
-23437.0
29206.0
-3778.0
-8094.0
12635.0
-17557.0
-34079.0
14842.0
-15750.0
20727.0
-23407.0
-27865.0
-20787.0
5709.0
-39769.0
5789.0
-12198.0
14470.0
26508.0
4259.0
-48959.0
15712.0
318.0
3695.0
-31485.0
-12432.0
-22463.0
-39732.0
24881.0
23083.0
23636.0
19788.0
-23114.0
25630.0
10902.0
-12607.0
6851.0
-19095.0
-40771.0
18057.0
-15361.0
15858.0
-24494.0
-30823.0
-24146.0
840.0
-43309.0
713.0
-25825.0
12921.0
37200.0
3138.0
-39569.0
18296.0
1750.0
5081.0
-27381.0
-4841.0
-14500.0
-40185.0
30953.0
29004.0
29383.0
3536.0
-18436.0
29499.0
6118.0
-6124.0
17243.0
-12136.0
-30628.0
5392.0
-14730.0
19160.0
-11111.0
-30660.0
-2807.0
6045.0
-27030.0
13561.0
-5012.0
26942.0
35902.0
7793.0
-36126.0
15832.0
13608.0
6203.0
-42822.0
-11695.0
-18054.0
-26740.0
22299.0
20253.0
29853.0
31475.0
-11480.0
24648.0
5486.0
