957.0
27403.0
2599.0
-29504.0
18813.0
-530.0
37635.0
-2624.0
-18542.0
-5500.0
25025.0
-37096.0
2228.0
12933.0
29856.0
27913.0
7107.0
-17662.0
39327.0
4523.0
11378.0
-31534.0
-18399.0
-12929.0
-12907.0
37240.0
13657.0
14399.0
16623.0
-8164.0
17957.0
3098.0
-6808.0
17751.0
-6073.0
-37037.0
2476.0
-16193.0
28142.0
-4307.0
-13032.0
11549.0
10656.0
-39544.0
5368.0
23943.0
32885.0
19909.0
-11772.0
-34636.0
44059.0
4888.0
19611.0
-48178.0
-12859.0
-9371.0
-25711.0
41940.0
24324.0
11220.0
9236.0
-19994.0
26926.0
4120.0
-8358.0
22386.0
2155.0
-30902.0
10240.0
-13852.0
32036.0
-11607.0
-19602.0
7987.0
16371.0
-37379.0
3005.0
21072.0
34262.0
18940.0
-9043.0
-24293.0
40272.0
8259.0
25496.0
-36115.0
-12770.0
-12248.0
-22370.0
42794.0
16051.0
6240.0
11046.0
-20114.0
23700.0
-2588.0
-10391.0
20071.0
1518.0
-33864.0
7198.0
-20995.0
30994.0
-3118.0
-19400.0
5834.0
21136.0
-39763.0
3149.0
28733.0
33006.0
20960.0
-15888.0
-32983.0
41286.0
2194.0
23686.0
-41452.0
-16146.0
-16437.0
-25495.0
42898.0
17627.0
8542.0
5844.0
-17546.0
18464.0
-6490.0
-5235.0
18044.0
-5945.0
-34907.0
9138.0
-20356.0
30900.0
-706.0
-17451.0
7261.0
18771.0
-39952.0
5408.0
21602.0
34059.0
27862.0
-7836.0
-20603.0
44945.0
-717.0
21873.0
-39512.0
-7331.0
-17462.0
-31864.0
40627.0
14706.0
7583.0
2574.0
-17496.0
23599.0
-5756.0
-8491.0
13344.0
2003.0
-35392.0
8650.0
-19365.0
34280.0
1156.0
-20696.0
3788.0
17355.0
-40817.0
2582.0
26417.0
33833.0
17488.0
-9267.0
-25404.0
41719.0
-764.0
16741.0
-44268.0
-11256.0
-16365.0
-22530.0
36845.0
15387.0
7381.0
11003.0
-22182.0
16665.0
-414.0
-4356.0
16511.0
-3147.0
-37229.0
7627.0
-23321.0
33432.0
-3924.0
-16507.0
8794.0
15349.0
-37631.0
-3832.0
17308.0
30257.0
22853.0
-9038.0
-22761.0
41252.0
960.0
14490.0
-38905.0
-7297.0
-12072.0
-27147.0
43303.0
21978.0
9631.0
-3276.0
-15766.0
30060.0
-3971.0
-6231.0
18123.0
-14991.0
-20173.0
6684.0
-19736.0
31240.0
-5772.0
-11169.0
9481.0
11371.0
-32619.0
13444.0
16717.0
42163.0
25699.0
-5485.0
-19204.0
46143.0
7603.0
20448.0
-41953.0
-3810.0
-16492.0
-12804.0
39198.0
16902.0
12416.0
15114.0
-18664.0
27877.0
-8135.0
