-30580.0
6807.0
-23599.0
7602.0
12429.0
25898.0
4997.0
-49455.0
14986.0
15582.0
-815.0
-13850.0
-6432.0
2183.0
26434.0
-444.0
-6349.0
-8349.0
19458.0
23587.0
-6718.0
-14979.0
36383.0
13574.0
-16094.0
10130.0
-5388.0
492.0
-33704.0
-290.0
-26034.0
-26090.0
-25026.0
4348.0
-19030.0
16918.0
1358.0
29448.0
7453.0
-40934.0
23200.0
8774.0
-5051.0
-22239.0
-8074.0
3265.0
5491.0
-9287.0
-35182.0
-15674.0
13744.0
14165.0
-23313.0
649.0
5643.0
5002.0
-24614.0
1099.0
-5300.0
23075.0
-35478.0
-3775.0
-23120.0
-25071.0
-25265.0
11262.0
-27917.0
8382.0
6080.0
30931.0
2730.0
-46563.0
15455.0
8618.0
982.0
-24165.0
-8197.0
-11777.0
13728.0
-2128.0
-26707.0
-14512.0
24295.0
26220.0
-21617.0
-33296.0
10730.0
4476.0
-30840.0
17402.0
3256.0
7980.0
-30720.0
-3552.0
-21001.0
-9140.0
-46091.0
13205.0
-26396.0
-1427.0
18113.0
27237.0
8963.0
-32897.0
20837.0
21654.0
-3378.0
-23224.0
-11902.0
-8402.0
10992.0
7065.0
-22564.0
-11872.0
8645.0
17251.0
-25484.0
-24168.0
21259.0
11398.0
-36261.0
10083.0
2017.0
18955.0
-36078.0
-17087.0
-40569.0
-12851.0
-19585.0
13413.0
-31426.0
-4415.0
22312.0
23008.0
4729.0
-35943.0
36506.0
18083.0
-7768.0
-16579.0
-15616.0
-8897.0
24736.0
10721.0
-17837.0
-6321.0
21451.0
20585.0
-27639.0
-17978.0
18171.0
8760.0
-37959.0
-2974.0
7673.0
18134.0
-25059.0
-12114.0
-28552.0
-20983.0
-10669.0
-1924.0
-22405.0
-2551.0
12039.0
25044.0
8816.0
-35529.0
21393.0
18009.0
-7253.0
-9182.0
-16256.0
8044.0
21493.0
1145.0
-23878.0
-11440.0
5497.0
21463.0
-25370.0
-11745.0
23648.0
1535.0
-32712.0
6706.0
161.0
14290.0
-22334.0
2512.0
-45001.0
-20936.0
-17854.0
20227.0
-30807.0
12488.0
8245.0
24106.0
615.0
-41818.0
28078.0
14742.0
-526.0
-15110.0
-11608.0
6508.0
22414.0
-9463.0
-24722.0
-9401.0
15607.0
15438.0
-42912.0
-13812.0
15272.0
-1653.0
-28511.0
-4221.0
2342.0
5566.0
-35324.0
-5250.0
-33440.0
-31655.0
-8495.0
18349.0
-7065.0
16496.0
26748.0
36099.0
9445.0
-48812.0
22567.0
28276.0
-23456.0
-12715.0
-17686.0
-949.0
32588.0
-8867.0
-31290.0
-11381.0
12050.0
29045.0
-14644.0
-8284.0
11518.0
14447.0
-21699.0
20987.0
-9958.0
30704.0
-15865.0
3805.0
-34265.0
-12850.0
