-13863.0
20818.0
-17177.0
17968.0
27417.0
24037.0
-303.0
-46708.0
18377.0
21384.0
-11355.0
-5869.0
-12755.0
2.0
37171.0
7309.0
-7951.0
5544.0
21400.0
22496.0
4802.0
-15947.0
43703.0
13666.0
-13137.0
13197.0
-16167.0
10975.0
-33264.0
-2598.0
-27095.0
-13938.0
-19037.0
22021.0
-17259.0
22707.0
20923.0
34072.0
-2468.0
-37709.0
20494.0
19661.0
-14989.0
-14831.0
-8825.0
-11621.0
26488.0
-4193.0
-10529.0
2287.0
25478.0
24300.0
-14511.0
-12385.0
31366.0
17208.0
-19751.0
2994.0
-15624.0
10688.0
-28557.0
-5834.0
-32708.0
-20610.0
-6204.0
27793.0
-22046.0
24744.0
25773.0
31701.0
-2355.0
-36577.0
19914.0
11018.0
-22164.0
-3382.0
-17553.0
-5016.0
38399.0
4020.0
-18806.0
8787.0
30042.0
18259.0
-9719.0
-19542.0
31948.0
11431.0
-15270.0
1792.0
-2563.0
9290.0
-23615.0
-8722.0
-18012.0
-22066.0
-16855.0
29943.0
-22461.0
13610.0
19813.0
26454.0
1020.0
-39641.0
16153.0
14956.0
-24179.0
-14043.0
-20468.0
-11258.0
34486.0
-1927.0
-16621.0
7909.0
33106.0
20471.0
-4934.0
-25625.0
38620.0
20100.0
-22706.0
-1289.0
-11448.0
13193.0
-18516.0
-8745.0
-38424.0
-30343.0
-16351.0
35765.0
-20849.0
30150.0
22497.0
23829.0
-2159.0
-42490.0
21008.0
13483.0
-20286.0
-13808.0
-16090.0
-2473.0
31255.0
127.0
-14639.0
5499.0
36123.0
17566.0
-18062.0
-5775.0
22510.0
14807.0
-21167.0
3523.0
-6995.0
12229.0
-32843.0
-6754.0
-30607.0
-24766.0
-6382.0
38706.0
-23165.0
17306.0
33383.0
28818.0
-2523.0
-45806.0
19908.0
17786.0
-25754.0
-9192.0
-12667.0
-10143.0
29232.0
-4855.0
-11472.0
9208.0
20133.0
26248.0
-12729.0
-5337.0
24852.0
8886.0
-13881.0
13360.0
-7671.0
8354.0
-29582.0
-3014.0
-45816.0
-19267.0
-11643.0
47083.0
-19849.0
26137.0
16860.0
26135.0
-4136.0
-37618.0
24658.0
11956.0
701.0
-6839.0
-5695.0
2739.0
29343.0
-5297.0
-27382.0
3039.0
29655.0
19518.0
-8502.0
-16536.0
35205.0
3690.0
-9717.0
3986.0
-11188.0
2158.0
-33723.0
-12404.0
-29461.0
-18069.0
-3312.0
31503.0
-7229.0
30695.0
33180.0
44663.0
2282.0
-37472.0
18626.0
21719.0
-29845.0
-11108.0
-12872.0
-9499.0
41141.0
-4975.0
-12881.0
-3249.0
27472.0
33592.0
-9745.0
-10574.0
31436.0
20180.0
-10243.0
9342.0
-6253.0
16059.0
-20288.0
-3444.0
-18947.0
-10340.0
